34 128
1 0.12126114 -0.14545208 0.07784502 0.011386122 0.052010607 -0.0509315 0.0087959375 0.13245277 0.048558712 0.07415561 0.19853137 -0.16275163 0.06968723 0.021956116 0.004145006 -0.09678919 0.07140599 0.039391115 -0.18439971 -0.09189129 0.17874682 0.09612818 0.060154524 0.06630826 -0.15071051 0.014141306 -0.11119973 -0.060871318 0.062221356 0.04304605 -0.30918166 0.112153724 0.059045788 0.07629807 -0.11588811 0.0051914025 0.2303816 -0.010602471 0.17234261 -0.12827687 -0.07042718 0.008459904 -0.12254968 -0.08750148 -0.022068825 -0.1792247 -0.09636626 -0.08410006 0.076323956 0.08179601 -0.0013400927 -0.08199077 0.096933134 0.13895777 0.09488674 0.0018561687 0.12989214 -0.03239477 -0.21971607 0.15604329 -0.012912477 -0.06786866 0.043409273 -0.029534562 0.09434253 -0.059897814 0.021660578 0.08970566 -0.010264917 -0.10978661 0.17709717 0.17560434 -0.16852926 -0.03318943 0.008221021 -0.16237578 0.07644849 -0.10310551 0.008597271 0.16361995 -0.052121785 -0.13282703 0.07661959 0.23173097 -0.057655636 0.07813769 0.20228922 -0.0693384 0.11082935 0.17730832 0.03370357 -0.068466 -0.048622645 -0.0048440876 0.27244455 0.02505214 -0.30307716 -0.25065997 -0.028605921 -0.009628761 -0.09949046 -0.014800778 -0.035241496 0.02369508 0.026409516 -0.103339 -0.0013642197 0.0029262041 0.089802116 0.009281413 0.022925906 -0.030508747 0.07683932 0.23333794 -0.16401015 0.09551088 -0.055200335 0.23455887 0.11584119 0.15210016 0.019571098 -0.20134236 0.106394224 0.030945487 0.092976816 -0.0032386954 -0.13906366 0.18227111
34 0.1232474 0.05437569 0.17008689 -0.019531557 0.07392923 -0.1349536 0.13377653 0.11886087 -0.031304285 0.034364987 0.23203792 -0.045359872 -0.007130046 -0.08687473 0.13904239 -0.016591178 0.23841025 -0.06926885 -0.059657842 0.07597036 0.12057114 0.110310525 0.10574175 -0.105351105 -0.2098116 0.15418601 -0.1495091 0.028499393 0.056930758 -0.106812455 -0.25579804 0.111870855 -0.07229721 0.025077552 -0.16312268 -0.045752775 0.20961542 0.081481196 0.11285658 -0.14615314 0.14329138 0.15174533 -0.043067995 -0.08811835 0.044516545 0.010346341 -0.020798892 -0.11761778 -0.061044082 0.14531134 0.12564892 0.028877918 0.2175591 0.075299695 0.13147339 -0.071973 0.18348712 0.1218773 -0.058802474 -0.048809875 0.05630712 -0.15540506 0.022246698 0.028525405 0.11333495 -0.1838964 0.06879571 0.07203529 -0.09161953 -0.15372041 0.10013304 0.0822495 -0.043236323 -0.051653758 -0.021992177 -0.026252912 0.05695817 -0.14929329 -0.17026238 0.1510117 0.05434592 -0.12590012 -0.08305199 0.17664522 0.05386224 0.029349744 0.23467317 -0.043455824 0.14484186 0.17344645 -0.2086386 -0.15702643 -0.0798012 -0.06364984 -0.011345266 0.034127943 -0.054354783 -0.16611655 0.037027273 -0.0653699 -0.0892668 -0.08748354 0.19801675 0.044594094 0.11010152 -0.16112629 0.034921225 0.026984934 0.13166945 -0.014741726 -0.025779465 0.1001508 0.016785908 -0.050034992 -0.1410329 0.1169128 0.00074787013 0.18986785 0.16651352 0.10458793 -0.049952943 -0.11042632 0.102051325 -0.048741475 0.0062492727 -0.11639272 -0.009827483 0.05251452
33 0.12742011 0.053802047 0.16483234 -0.029532528 0.07513299 -0.1496032 0.1520081 0.11403235 -0.056282543 0.03490826 0.23634233 -0.043411214 -0.033373293 -0.091026835 0.17766401 -0.009168591 0.27846998 -0.08802302 -0.053404838 0.09434628 0.12162564 0.11931331 0.091134176 -0.10779282 -0.22267155 0.16043043 -0.16948086 0.018255737 0.061159257 -0.14613786 -0.27071506 0.10746211 -0.06943884 0.013456801 -0.17364697 -0.027936567 0.23462938 0.08189952 0.11081655 -0.14438897 0.17869106 0.16557327 -0.025111211 -0.085504144 0.040962942 0.018985502 -0.022536833 -0.13861586 -0.060595673 0.1650069 0.15247813 0.051063836 0.26579505 0.0573647 0.14734055 -0.06987997 0.20072639 0.14334649 -0.04504039 -0.05384834 0.07682706 -0.17020316 0.011992644 0.051254068 0.120519705 -0.20454334 0.08927789 0.07412004 -0.11810231 -0.16663083 0.12531173 0.075289056 -0.044247057 -0.056570217 -0.013849173 -0.023131054 0.03502726 -0.17457448 -0.17915322 0.17059907 0.086214066 -0.15206851 -0.09825969 0.19693789 0.06351528 0.037385628 0.25067103 -0.04346027 0.16270147 0.17898414 -0.23758478 -0.16160277 -0.08017479 -0.062229227 -0.021534063 0.05953321 -0.060069025 -0.18200202 0.021802898 -0.080665894 -0.07642299 -0.08792572 0.22682384 0.05467068 0.1465834 -0.1746008 0.059327025 0.025781216 0.15412614 -0.021718705 -0.028846819 0.13264208 0.02560077 -0.08226937 -0.15294223 0.11185288 -0.007496918 0.21290933 0.18333454 0.1259144 -0.051733308 -0.11478796 0.09525537 -0.05016265 0.010551587 -0.12202204 0.0116094835 0.06706311
2 0.09662186 -0.15119426 0.09064843 0.0044590216 0.07155997 -0.067665674 -7.456972e-05 0.13183619 0.051201005 0.07154528 0.24901138 -0.14922212 0.07464223 0.002148652 0.0013526118 -0.11064633 0.073905624 0.031261045 -0.18928581 -0.10501659 0.16375324 0.09155419 0.064389676 0.053959236 -0.16605286 0.0427995 -0.11274372 -0.05304063 0.045202844 0.04196423 -0.31497863 0.09949966 0.028432509 0.10182874 -0.112655394 0.0062691425 0.2277072 -0.020899156 0.20372432 -0.14309202 -0.049114212 0.02396907 -0.12253225 -0.09690109 -0.036847513 -0.18766499 -0.07950158 -0.09119797 0.08572003 0.058862016 0.039930135 -0.11000678 0.09543266 0.15083331 0.10761577 -0.022515621 0.13403925 -0.044311758 -0.22910704 0.16390575 0.007832388 -0.083712526 0.043562524 -0.032523483 0.09847379 -0.06541525 0.026642324 0.12032638 0.00014852532 -0.115912974 0.17079206 0.14531375 -0.16909397 -0.061846454 -0.0037153058 -0.16168658 0.09658303 -0.11523938 -0.0018513048 0.17392983 -0.059734702 -0.1395363 0.082631394 0.25426427 -0.05831294 0.07359288 0.2131565 -0.06839218 0.10499122 0.17932306 0.036759973 -0.07064983 -0.06959957 -0.011366344 0.28552428 -0.013838496 -0.31728315 -0.27295038 -0.018486282 -0.021822117 -0.10463965 -0.0373301 -0.020767534 0.031957168 0.033820882 -0.115962535 -0.008884645 -0.0062416764 0.12266635 -0.0023729831 0.029712098 -0.02618853 0.09564849 0.22458887 -0.16580701 0.11438745 -0.09009248 0.2498245 0.1320516 0.12900965 -0.003516157 -0.18400553 0.12845087 0.039185327 0.07650305 -0.01591974 -0.13281228 0.17044227
4 0.087131746 -0.12563218 0.08900693 -0.0046647117 0.066435345 -0.0740268 0.01979508 0.123122446 0.032015827 0.05850096 0.23757318 -0.12330972 0.05115426 -0.010288691 0.022228943 -0.10026779 0.09626203 0.016410818 -0.15624067 -0.093045406 0.13790724 0.080364436 0.06724727 0.03677921 -0.1507201 0.05751359 -0.09417568 -0.04050707 0.05378899 0.013341837 -0.29383576 0.09278481 0.012642455 0.08378747 -0.11965117 0.011409734 0.20935088 -0.007511488 0.17974871 -0.15011275 -0.015001027 0.04287736 -0.11405166 -0.09099897 -0.013440851 -0.16463208 -0.07768569 -0.09559725 0.07266793 0.07009368 0.05321596 -0.09521338 0.10676021 0.13474691 0.10743961 -0.034839742 0.12843674 -0.032448895 -0.19174793 0.13192979 0.016492996 -0.07706831 0.036402278 -0.02190008 0.0815765 -0.06807617 0.02796776 0.11190003 -0.011368766 -0.11237279 0.16130869 0.12515803 -0.14271656 -0.06345784 -0.0079993745 -0.12306357 0.08765282 -0.109745055 -0.017793508 0.16506076 -0.049137726 -0.1309052 0.06296422 0.22974186 -0.044251963 0.049014017 0.20994775 -0.070331186 0.10950396 0.16177703 0.0070654163 -0.08106177 -0.0635556 -0.022272438 0.23713778 -0.0023379636 -0.2687247 -0.24631315 -0.009314417 -0.020820625 -0.088956736 -0.030048767 -0.0016686239 0.036328226 0.06353985 -0.11368899 -0.0049663195 -0.008006897 0.11885945 0.00031195272 0.02738234 -0.004924168 0.08072749 0.17991984 -0.15309246 0.1081226 -0.073286064 0.2279183 0.13621394 0.12674662 -0.0022090394 -0.15869968 0.115476094 0.027383264 0.06819888 -0.031026468 -0.11311898 0.14427282
32 0.14214815 0.053424418 0.18164223 -0.031761527 0.0678404 -0.1400459 0.13238354 0.10421217 -0.04764367 0.023706796 0.22013679 -0.055504065 -0.027711608 -0.094291024 0.16409592 -0.019385038 0.26258147 -0.091243766 -0.054218084 0.08122589 0.113987125 0.11053032 0.096857876 -0.0965593 -0.20983692 0.16527216 -0.15964228 0.01821065 0.059125878 -0.1364515 -0.25459126 0.118754536 -0.06959311 0.013888318 -0.15776725 -0.04115883 0.22279574 0.086390726 0.092660375 -0.12939484 0.15960704 0.14720869 -0.036565557 -0.070355594 0.05103646 0.006275478 -0.012499711 -0.13116457 -0.07130139 0.1656528 0.1322781 0.047218267 0.24082398 0.061314296 0.12852558 -0.059152324 0.19732027 0.13858782 -0.05523397 -0.044440933 0.06379965 -0.15780382 0.026706452 0.04774048 0.11623725 -0.1937037 0.088230655 0.049551103 -0.1034729 -0.16075093 0.113745935 0.07530382 -0.04344374 -0.051531717 -0.010884542 -0.016176242 0.043548793 -0.15898205 -0.17169215 0.1428373 0.06963526 -0.13286741 -0.084093444 0.16832998 0.046608064 0.043627266 0.21695487 -0.03383703 0.13979077 0.17459397 -0.23575895 -0.14798822 -0.0677972 -0.059381597 -0.029863736 0.060810346 -0.0512316 -0.1633087 0.024188094 -0.07002677 -0.07349034 -0.0888892 0.20764181 0.0583922 0.13952957 -0.17388041 0.047198795 0.01620508 0.13924183 -0.011987147 -0.034863982 0.111008175 0.027251154 -0.070052296 -0.15448302 0.11142387 -0.010145145 0.18943319 0.16936396 0.12974282 -0.03638394 -0.12647916 0.08878155 -0.045767415 0.014937094 -0.11579642 -0.01035634 0.0707962
3 0.07924409 -0.16194062 0.07139417 0.0055118203 0.07288665 -0.0478471 -0.012320716 0.12494104 0.063757695 0.0646466 0.22691381 -0.15250924 0.067950495 0.016804313 -0.02545318 -0.10930301 0.05067304 0.03969345 -0.17695771 -0.11424388 0.15533361 0.074284025 0.055913344 0.0577108 -0.14925416 0.027060937 -0.08893365 -0.052949227 0.038365457 0.053746734 -0.2849437 0.08806094 0.029746637 0.10715055 -0.09852116 0.019742921 0.20891848 -0.02044735 0.19870147 -0.1448165 -0.07175264 0.012742652 -0.12305776 -0.09998488 -0.031193703 -0.19585486 -0.07355916 -0.07739884 0.08896389 0.04697614 0.013838232 -0.117557816 0.07341042 0.15727629 0.11095627 -0.032466467 0.120772116 -0.05852367 -0.22778696 0.1602751 0.0018332286 -0.07278215 0.046338096 -0.051019005 0.08949117 -0.033956725 0.010749611 0.12350728 0.00053512846 -0.093598746 0.16755141 0.14024624 -0.16482672 -0.052318156 -0.0018872132 -0.16001016 0.09676398 -0.10163293 0.007972699 0.16464427 -0.07119841 -0.13074313 0.08545475 0.23594968 -0.0628569 0.05778271 0.20660707 -0.075476795 0.09295074 0.16386268 0.06603133 -0.065126464 -0.06899516 -0.01677222 0.2991167 -0.016842525 -0.32366693 -0.26259235 -0.02909648 -0.007246951 -0.104711056 -0.02554147 -0.05253543 0.027329369 0.034837123 -0.09706654 -0.028443247 -0.010047646 0.10475099 -0.0032437933 0.023067828 -0.037792005 0.09210207 0.2287621 -0.14672212 0.11030549 -0.08248997 0.23760785 0.11615347 0.115847774 0.0059198113 -0.16662751 0.120241284 0.042730175 0.08581877 -0.0007252064 -0.12135676 0.1782876
24 0.1344652 0.07548154 0.18259355 -0.029608825 0.06564432 -0.15618648 0.14403345 0.119806185 -0.051551938 0.017702697 0.2254922 -0.038587805 -0.026377765 -0.10549348 0.18036087 -0.011431452 0.27840543 -0.090133645 -0.047743123 0.10237635 0.11391711 0.108296074 0.10392436 -0.11914579 -0.21460432 0.17467193 -0.16095561 0.024353128 0.069126904 -0.14708877 -0.2623449 0.12033691 -0.08213312 0.004273312 -0.16294469 -0.03283503 0.21733017 0.093151994 0.08376553 -0.13780764 0.17288402 0.16898492 -0.024219887 -0.074172474 0.05572693 0.027476672 -0.022771899 -0.13439652 -0.07056615 0.17045344 0.14548542 0.057205673 0.25839636 0.06606229 0.13165306 -0.06412734 0.19050124 0.15941812 -0.038386237 -0.06996241 0.061208457 -0.16299272 0.019880837 0.041962557 0.11508534 -0.1942069 0.09261275 0.055387873 -0.11310039 -0.16637164 0.10521865 0.05679845 -0.037265122 -0.057460185 -0.009953859 -0.0040585236 0.037671752 -0.17579311 -0.18469697 0.14804137 0.083039135 -0.14102684 -0.091362506 0.17696221 0.06670436 0.025932403 0.22728917 -0.03106475 0.15082054 0.15890504 -0.25241604 -0.1605852 -0.065734774 -0.05484599 -0.052767776 0.0674915 -0.024694115 -0.1501899 0.04033271 -0.084757954 -0.08493778 -0.09147593 0.23637177 0.06324471 0.15177974 -0.17587018 0.062762536 0.01590093 0.13380508 -0.022211166 -0.03177459 0.12927146 0.016418714 -0.09347673 -0.13732287 0.10607335 0.010600326 0.1730484 0.17627409 0.117589936 -0.045804616 -0.107799634 0.096122354 -0.065095074 0.005734505 -0.13141324 0.019318504 0.041617967
8 0.080654055 -0.11134918 0.08372264 -0.007434256 0.07039156 -0.05759731 0.01080343 0.11787571 0.04719116 0.067897044 0.22305092 -0.11955306 0.05883014 -0.0023563523 0.0061304164 -0.09047983 0.08037233 0.020299004 -0.1574928 -0.07325465 0.13705097 0.07384851 0.05908506 0.02796903 -0.15925983 0.04610154 -0.10552808 -0.04194097 0.03945542 0.028491383 -0.275644 0.09271214 0.011866315 0.08339725 -0.101708576 0.0063336175 0.19546355 -0.0052777845 0.17271689 -0.13534494 -0.031665727 0.037886932 -0.114321336 -0.09456144 -0.015711533 -0.15480174 -0.065017775 -0.0819395 0.06042936 0.072447404 0.040696256 -0.07719324 0.10176273 0.12498233 0.10522468 -0.023587167 0.13301612 -0.0154531645 -0.1848821 0.13057002 0.00076260534 -0.079416774 0.035689518 -0.024815079 0.092903614 -0.06046772 0.029850194 0.10567382 -0.01419973 -0.10312909 0.14389798 0.12968181 -0.13121128 -0.054816697 -0.0029626582 -0.13869646 0.094036944 -0.09915384 -0.017226225 0.15764013 -0.04300908 -0.12785093 0.05474471 0.22536056 -0.043851394 0.052630715 0.20539778 -0.063384764 0.0997428 0.15858105 0.015295164 -0.07908245 -0.06754478 -0.025318287 0.22855693 -0.010136469 -0.26744196 -0.24274403 -0.013152354 -0.027333172 -0.099926084 -0.039095983 -0.008161721 0.03328827 0.043785546 -0.10416019 -0.013279091 -0.009682591 0.10672209 -0.0002956926 0.01962719 -0.009331004 0.074509546 0.17776227 -0.1543482 0.102839485 -0.073782794 0.21666683 0.122431554 0.12471566 -0.0041940887 -0.15821823 0.119130954 0.026902335 0.06406683 -0.014408305 -0.106736116 0.14271824
14 0.11020661 -0.07943967 0.08950507 -0.0027624436 0.06662097 -0.06631251 0.038627826 0.11701528 0.026162826 0.05559031 0.2063561 -0.12027598 0.044498198 -0.010154689 0.05264739 -0.06600818 0.1088607 0.00036849323 -0.1438234 -0.03665897 0.14785594 0.09571096 0.07260599 0.012580398 -0.17202191 0.066874154 -0.112407245 -0.037536375 0.053310487 0.0054136054 -0.28644386 0.09804489 0.012208065 0.06763779 -0.13068798 -0.009817161 0.21684225 0.024006018 0.1596373 -0.14100142 0.0013956762 0.05260664 -0.08497253 -0.08747523 -0.012106136 -0.12331328 -0.0663765 -0.10068892 0.04163589 0.08333027 0.057000104 -0.060776617 0.13598034 0.12429676 0.103219375 -0.021017948 0.15085036 0.009032914 -0.17033806 0.085097775 0.00760408 -0.09707532 0.033958398 -0.01735094 0.096841335 -0.08926892 0.040011656 0.087098986 -0.036614656 -0.12183673 0.15264687 0.1383468 -0.12692252 -0.035782084 -0.010708067 -0.10982568 0.07200736 -0.11596258 -0.050780796 0.16741236 -0.015435503 -0.13112679 0.0246103 0.20929366 -0.028245265 0.052394275 0.21274725 -0.058428247 0.116217226 0.16833541 -0.038833056 -0.09552591 -0.06709607 -0.032178603 0.18701702 0.014093181 -0.23104094 -0.2189789 -0.0065981178 -0.03716242 -0.08830428 -0.04444599 0.037535317 0.032163262 0.05304654 -0.1167001 0.014428137 0.008400413 0.10479817 -0.00019302522 0.016108314 0.019892488 0.060744278 0.14107884 -0.14714871 0.102982864 -0.057429597 0.21804714 0.14282852 0.13443479 -0.004656289 -0.16298743 0.10852261 0.012581071 0.06770819 -0.045939337 -0.096750416 0.13583656
30 0.11825516 0.04768662 0.1564379 -0.014751727 0.064428024 -0.13085179 0.13293156 0.10383732 -0.043322034 0.026790189 0.21391599 -0.05581999 -0.013292579 -0.09471683 0.16114362 -0.018013217 0.2537275 -0.06986444 -0.04919846 0.08048611 0.1002447 0.11700197 0.07983892 -0.091930576 -0.20551768 0.14556028 -0.14926451 0.007939227 0.057661172 -0.12062677 -0.25329092 0.11243853 -0.07206082 0.010129701 -0.14943099 -0.024013182 0.21554428 0.08083538 0.09896984 -0.14044982 0.15130937 0.14212425 -0.022893704 -0.06666883 0.047455676 0.009336324 -0.03149205 -0.13017319 -0.0505362 0.15363236 0.13439272 0.03968746 0.23930046 0.064557195 0.12604728 -0.064683706 0.16758943 0.13528182 -0.0547712 -0.04391983 0.0565542 -0.15034981 0.024706446 0.039182596 0.10589148 -0.18279992 0.069042005 0.058831103 -0.093674086 -0.15443395 0.11620582 0.07180883 -0.058095872 -0.04413933 -0.013291719 -0.024080778 0.039018035 -0.16040981 -0.1615954 0.16348614 0.070093565 -0.13523614 -0.0729446 0.18541753 0.05649991 0.033520952 0.23286854 -0.03430506 0.14913917 0.16242078 -0.21233559 -0.14719528 -0.0762843 -0.048968464 -0.0011352214 0.062712565 -0.06274832 -0.15962496 0.02483636 -0.07744485 -0.07371796 -0.0907022 0.19871552 0.05865515 0.13142157 -0.15932003 0.056919236 0.024670811 0.13246685 -0.018976042 -0.013635981 0.11659519 0.030141288 -0.049070887 -0.14935622 0.09843282 -0.001991147 0.18363936 0.16328242 0.12904814 -0.03453795 -0.109464295 0.09553937 -0.049629655 0.02618692 -0.119829096 0.007376256 0.06901713
6 0.15979528 -0.16905184 0.08402682 -0.024478381 0.052599974 -0.053182807 -0.021221353 0.12994418 0.07098767 0.09412954 0.17974159 -0.18650088 0.09529771 0.01983523 0.01947203 -0.102541976 0.0635963 0.05267242 -0.1681049 -0.07668067 0.18723851 0.09482476 0.02946329 0.086128145 -0.15995651 -9.470363e-05 -0.13205087 -0.09399287 0.110303484 0.061379172 -0.31870994 0.1478142 0.071897894 0.08606923 -0.11087515 0.014160201 0.26945832 0.016734324 0.17377783 -0.12235483 -0.05908791 -0.014865858 -0.108120106 -0.06941826 -0.0098199425 -0.2054763 -0.10131058 -0.12847507 0.08092609 0.0966657 -0.0022179808 -0.07075521 0.11104287 0.13463096 0.09174692 0.040872417 0.14192267 -0.00033474562 -0.23501821 0.15269934 -0.02159756 -0.07219709 0.06066422 -0.019964922 0.12533645 -0.07475332 0.03510462 0.04847784 0.0065722074 -0.122674085 0.19536068 0.19981383 -0.19986868 0.0015023979 0.007684223 -0.20286728 0.060770553 -0.10276747 0.03306376 0.20719853 -0.060635485 -0.16738667 0.07456776 0.24474838 -0.043253496 0.11890025 0.21731465 -0.07383889 0.13172838 0.21166609 0.008977769 -0.06476262 -0.060210947 0.006188178 0.28368488 0.056339454 -0.33287176 -0.27539062 -0.04461231 -0.01180439 -0.0986089 0.00021036298 -0.06051554 0.0058388878 0.008073461 -0.09867687 -0.0052775787 -0.02357521 0.07662438 0.03684791 0.026437987 -0.014691256 0.08495784 0.2585106 -0.21388723 0.07680075 -0.07731798 0.2461334 0.123327605 0.20895056 0.023774106 -0.25603253 0.078862734 0.040375754 0.10547978 0.004449857 -0.16632405 0.23183571
7 0.1326343 -0.124470256 0.07798287 -0.0013022374 0.07006151 -0.058564063 0.006800441 0.12417884 0.0446423 0.07973737 0.18363564 -0.15803824 0.064420834 -0.009332632 0.029223364 -0.08692465 0.099785216 0.028589126 -0.15692084 -0.05249267 0.16445547 0.09261352 0.061899513 0.052436136 -0.16128917 0.03231276 -0.1210254 -0.062552795 0.08092903 0.017978953 -0.29958215 0.12590672 0.03711696 0.07748746 -0.124574356 0.0027555053 0.23819207 0.012137674 0.17050816 -0.12173754 -0.025516339 0.013007406 -0.099252485 -0.08377933 -0.019196846 -0.15645465 -0.082619235 -0.10574539 0.05234159 0.09346269 0.01810188 -0.06584093 0.13473521 0.13829474 0.089267485 0.00413354 0.13417529 -0.000928698 -0.19993484 0.12683058 0.0021371148 -0.07476251 0.058212254 -0.00787059 0.10415309 -0.08699171 0.038045168 0.073907256 -0.016484205 -0.116430975 0.16662607 0.16293605 -0.15374872 -0.019664662 -0.003509091 -0.15944813 0.05128265 -0.10580442 -0.019327827 0.18849252 -0.03904654 -0.14621693 0.04667949 0.22053304 -0.026361277 0.08821289 0.2158674 -0.057589464 0.121701725 0.18755184 -0.006947414 -0.089642115 -0.05992899 -0.011693908 0.22921693 0.029191598 -0.26852122 -0.2440286 -0.024872066 -0.024518281 -0.08507194 -0.027760865 -0.019446127 0.021315455 0.03659473 -0.115593955 0.0025576197 -0.001942718 0.09984499 0.0141765075 0.011749063 -0.002737414 0.08166423 0.19333024 -0.17682502 0.07919262 -0.05916894 0.2295948 0.13083631 0.16497977 0.0045157652 -0.20391947 0.091894016 0.030202081 0.08776697 -0.018881626 -0.115831226 0.1789267
9 0.10534481 -0.06037884 0.096932076 -0.0037592617 0.072532274 -0.07798238 0.058798637 0.12126205 0.013002851 0.051152334 0.20837529 -0.11453354 0.041259214 -0.033376433 0.071443856 -0.06664912 0.13985063 -0.02244942 -0.12916803 -0.031149222 0.12870972 0.09252897 0.062432703 -0.011033053 -0.17683822 0.07171746 -0.111412466 -0.023272369 0.06024457 -0.018872151 -0.27603948 0.10550095 -0.012684062 0.05696679 -0.13441578 -0.0032717483 0.21179746 0.03361505 0.14696258 -0.14409953 0.043358654 0.06112766 -0.07276727 -0.07863631 -0.0023903134 -0.10622412 -0.05744167 -0.110417634 0.03329158 0.0979496 0.07483163 -0.044610612 0.15326355 0.10570006 0.11600403 -0.04378316 0.15801753 0.030554244 -0.1503829 0.06477549 0.020727567 -0.1070801 0.033104386 -0.010209657 0.09949046 -0.10802496 0.04123859 0.08688341 -0.050409984 -0.12895994 0.1513868 0.12718286 -0.12043743 -0.03685191 -0.0027980297 -0.10504427 0.0735251 -0.13703597 -0.059965294 0.1694946 -0.0006120431 -0.1383309 0.0041735624 0.2066568 -0.007902743 0.05650881 0.21940246 -0.04802071 0.12617645 0.16003148 -0.0594398 -0.10096362 -0.058157835 -0.028454464 0.14525099 0.027698748 -0.20176439 -0.21845382 -0.014614733 -0.036741976 -0.07792113 -0.04614581 0.061129205 0.040341605 0.07872868 -0.13216424 0.014146608 -8.3529885e-05 0.11897894 0.00894578 0.009804877 0.039505653 0.06481475 0.10823838 -0.14947855 0.10900087 -0.04965203 0.22010905 0.14491268 0.12815665 -0.0074479785 -0.14727813 0.11068179 0.0044927546 0.06477279 -0.049150378 -0.06653984 0.13061266
28 0.14357333 0.08294627 0.19409238 -0.015407748 0.072013624 -0.16449499 0.16784033 0.11655066 -0.05215243 0.008267552 0.22573237 -0.037960246 -0.029266398 -0.11476836 0.19668518 0.003312612 0.29068393 -0.11143471 -0.04675947 0.108814 0.11494075 0.12867053 0.11078733 -0.12530047 -0.22450525 0.19316621 -0.15380447 0.04192731 0.06437769 -0.1652849 -0.2675468 0.10945214 -0.08142954 9.833225e-05 -0.18553077 -0.038273983 0.22691445 0.09227577 0.09764707 -0.14854158 0.18391398 0.18115728 -0.025946416 -0.07656677 0.06463322 0.03985906 -0.007818812 -0.13669312 -0.08308668 0.17769009 0.16014035 0.07045372 0.2730244 0.06208092 0.13615394 -0.07793909 0.21836686 0.16524051 -0.03982418 -0.07928005 0.06530633 -0.1754387 0.022339113 0.056147642 0.12062812 -0.21459617 0.0988963 0.060907654 -0.118412204 -0.1621419 0.124190785 0.07486263 -0.039038584 -0.0517261 -0.0088101 0.0054672346 0.041837975 -0.17806491 -0.19697894 0.1552702 0.09438772 -0.14433077 -0.09820518 0.1796744 0.062991425 0.030329702 0.2316907 -0.03905101 0.15140039 0.16921866 -0.26694036 -0.16651952 -0.064868525 -0.064866275 -0.06558791 0.066508085 -0.020808497 -0.16353804 0.04307513 -0.08598095 -0.07961449 -0.0939945 0.2493664 0.069861576 0.15940808 -0.18482697 0.06427233 0.024845777 0.14852054 -0.012508808 -0.033101123 0.13873881 0.004394044 -0.098653406 -0.1428809 0.111798964 0.010780818 0.18384412 0.18835431 0.123212226 -0.04818515 -0.11246232 0.105460115 -0.06458013 0.014213749 -0.14629078 0.014954914 0.04333399
5 0.11360444 -0.16605453 0.056640003 -0.006256066 0.054288607 -0.03717783 -0.021542339 0.11818657 0.06778281 0.09416206 0.19817352 -0.17713436 0.089000165 0.023343477 -0.015800947 -0.101209655 0.043678075 0.048330024 -0.18850905 -0.10967527 0.17517632 0.096727476 0.053251516 0.08935439 -0.15288135 0.006551299 -0.11143875 -0.08600165 0.07648255 0.06609607 -0.32458994 0.112170435 0.050199598 0.09141231 -0.10517002 0.023386952 0.24332362 -0.0061096083 0.1975842 -0.13421558 -0.07310201 -0.01827281 -0.12233168 -0.08892389 -0.028891684 -0.19828022 -0.10429378 -0.10633092 0.08747198 0.06549452 -0.00075102656 -0.098012224 0.09414456 0.14580935 0.088664 0.011536928 0.13018535 -0.036196273 -0.23977368 0.16771694 -0.019016482 -0.06428452 0.057196297 -0.029978396 0.10562341 -0.053847995 0.021548962 0.085007355 0.0026326058 -0.11859558 0.18379934 0.17806955 -0.19249421 -0.018803604 -0.0071352115 -0.19400194 0.06834818 -0.095013715 0.03147615 0.19571897 -0.063827954 -0.14362438 0.08594988 0.25455433 -0.05677956 0.09158512 0.20961411 -0.071551956 0.11963454 0.18182784 0.053964444 -0.06516311 -0.05280076 0.0016222156 0.30429322 0.013380267 -0.33975086 -0.26430085 -0.040874414 -0.012143137 -0.09706091 -0.00689236 -0.0710794 0.026937274 0.013530225 -0.10156576 -0.0056479815 -0.013369038 0.08547454 0.012896195 0.029203739 -0.038255926 0.09268085 0.2622103 -0.184196 0.0933961 -0.07623682 0.25411063 0.12356432 0.16847901 0.020648368 -0.21567401 0.09468411 0.055766523 0.09735584 -0.0059964024 -0.15959686 0.20002134
13 0.11025369 -0.11588432 0.09002643 -0.006859831 0.06806573 -0.06382178 0.012114152 0.12716681 0.0442927 0.062328823 0.20258233 -0.14456935 0.061451573 0.0029571783 0.029726466 -0.09534534 0.08079519 0.024722362 -0.16094209 -0.07217871 0.15800561 0.08747599 0.06425455 0.03842134 -0.16666813 0.043124 -0.10317123 -0.040371463 0.059975922 0.028000737 -0.297393 0.103966266 0.022566453 0.08118775 -0.12037478 -0.0018635064 0.21823613 0.0151723875 0.17635635 -0.13842568 -0.027221423 0.032527767 -0.107440606 -0.08186444 -0.015303892 -0.14850904 -0.06713192 -0.10077154 0.06468131 0.07751451 0.025697464 -0.074173935 0.117971934 0.13895041 0.10919139 -0.008901018 0.13319321 -0.0048520244 -0.19936357 0.121989794 0.005962533 -0.08111181 0.049516078 -0.017721538 0.1054116 -0.07641715 0.025402434 0.08734409 -0.013664996 -0.118749395 0.16479838 0.15093699 -0.15193355 -0.041244 -0.0048975325 -0.14278011 0.07675637 -0.10940555 -0.022340728 0.17737968 -0.031080056 -0.13733967 0.05598346 0.22622566 -0.03433097 0.0663584 0.21534564 -0.07118035 0.111756 0.16778317 -0.0038838661 -0.08442456 -0.065386675 -0.015536011 0.23233992 0.013522156 -0.27960446 -0.2494187 -0.020775793 -0.028571397 -0.10153355 -0.032741565 0.002532838 0.035426114 0.03290713 -0.10956931 -0.0040069716 -0.011486831 0.10541784 0.006959758 0.013966719 -0.0063433484 0.07366723 0.19245908 -0.16993293 0.104407765 -0.06709038 0.23215131 0.13902083 0.14665724 -0.0030885213 -0.17875266 0.11314489 0.032475173 0.07809616 -0.028976608 -0.11354305 0.1617832
26 0.12541308 0.061616134 0.1739774 -0.018631674 0.06089472 -0.14884901 0.14377508 0.10450631 -0.054992866 0.022787018 0.22404239 -0.045879442 -0.030744888 -0.097120434 0.17960519 -0.019962853 0.26793182 -0.08825154 -0.050912764 0.08352868 0.095096186 0.11899448 0.08399753 -0.097471565 -0.20341319 0.16790535 -0.1458088 0.028371355 0.061959703 -0.14400405 -0.2507557 0.110685565 -0.07956734 0.0019267878 -0.1651975 -0.033611324 0.21799642 0.08292619 0.099597454 -0.13109446 0.16042219 0.15582444 -0.01673911 -0.070464306 0.04983903 0.019248331 -0.029474894 -0.12379104 -0.05576498 0.16580501 0.13930635 0.05063545 0.25255916 0.059772793 0.118657574 -0.06390405 0.17762265 0.1360468 -0.043106735 -0.044854354 0.07202854 -0.15728463 0.010915698 0.050824538 0.11400837 -0.19393274 0.075356066 0.054456487 -0.10702685 -0.15683942 0.11374664 0.060544383 -0.048320133 -0.057921883 -0.003919945 -0.016538905 0.02816973 -0.15797599 -0.16985263 0.16102 0.07091608 -0.14581706 -0.08241149 0.17687485 0.04892381 0.030043371 0.22939053 -0.031168593 0.15248913 0.16622715 -0.2366238 -0.15328833 -0.07354799 -0.049658637 -0.033013478 0.061122105 -0.045725003 -0.16724002 0.022082405 -0.07456105 -0.080188446 -0.091747336 0.21637355 0.069623314 0.1431568 -0.17089175 0.066677615 0.01184257 0.13896444 -0.0124620125 -0.017994778 0.1241815 0.034347218 -0.07164023 -0.1447256 0.10250409 -0.013413183 0.18734561 0.17458962 0.11372216 -0.04250478 -0.111273624 0.09481938 -0.04298114 0.012969701 -0.13133551 0.014893562 0.051681098
20 0.09734771 -0.12738097 0.0783952 0.0006452929 0.07350918 -0.061967064 0.013488787 0.12430474 0.03807773 0.067528345 0.2269535 -0.13393532 0.06530947 -0.008387666 0.030729944 -0.09486156 0.09697476 0.020245655 -0.16430806 -0.08651701 0.14848234 0.1000917 0.065061815 0.03927223 -0.16132765 0.046750814 -0.10202434 -0.04911119 0.04651426 0.01791783 -0.30520988 0.09561579 0.0319174 0.08659924 -0.13020432 0.007412917 0.23177887 0.0068581644 0.18791099 -0.15204695 -0.021111747 0.023659747 -0.11191396 -0.09172982 -0.022295747 -0.1589108 -0.073205255 -0.0965634 0.07338253 0.082165174 0.034790162 -0.07554524 0.124242775 0.1476335 0.10914567 -0.0250238 0.13665068 -0.017127087 -0.20141952 0.13833341 0.011057043 -0.085383475 0.047009006 -0.027724707 0.099364266 -0.06964592 0.02800247 0.107828416 -0.027167479 -0.124423824 0.17633484 0.14422394 -0.14372873 -0.04450934 -0.0070249867 -0.14133061 0.076448 -0.12135157 -0.021218505 0.18118991 -0.036157135 -0.14114736 0.0469226 0.24817337 -0.047909547 0.07345238 0.22756496 -0.071977176 0.113148764 0.17195442 -0.0021645934 -0.07753682 -0.05715079 -0.019144705 0.24256696 0.014978725 -0.28615573 -0.25540802 -0.017466104 -0.0347073 -0.10244029 -0.04445883 0.009606078 0.038067963 0.042722866 -0.12662685 0.002706226 0.0040336316 0.11731453 0.0033407828 0.018068675 0.002739729 0.08147912 0.19863416 -0.17461175 0.1031798 -0.07784891 0.24233021 0.13397227 0.14627716 -0.008017467 -0.18354195 0.12415878 0.022880385 0.07874454 -0.032555267 -0.1065912 0.16980465
25 0.13405432 0.052435648 0.17498045 -0.02671047 0.07782268 -0.14928304 0.13810559 0.11553723 -0.043391775 0.022491014 0.22989562 -0.06190575 -0.006388993 -0.09646807 0.16986822 -0.021513432 0.25669265 -0.08335792 -0.05661939 0.08405287 0.116537735 0.11436437 0.09692662 -0.08414878 -0.19940998 0.1639237 -0.14125127 0.028876647 0.068169415 -0.12091949 -0.2632746 0.11429323 -0.06308266 0.015877832 -0.16973539 -0.044799827 0.21706182 0.08811086 0.09848343 -0.14508009 0.15084638 0.14571464 -0.035172004 -0.06769816 0.049200796 0.006107527 -0.022397608 -0.1257974 -0.044766393 0.16225453 0.1267891 0.047606315 0.2431765 0.072704315 0.12251147 -0.057253763 0.1976559 0.13847053 -0.06265362 -0.042717755 0.05438502 -0.15316832 0.02971815 0.027661186 0.12293809 -0.1926569 0.085698605 0.049904734 -0.087592624 -0.146869 0.12159537 0.07672035 -0.05493456 -0.05050553 -0.016173618 -0.02149995 0.047259767 -0.1590809 -0.16708922 0.16294234 0.06564927 -0.13998924 -0.081377275 0.18671173 0.05067996 0.043942086 0.21996261 -0.044134814 0.13869618 0.16575015 -0.2237787 -0.15604712 -0.068988405 -0.050661318 -0.022963403 0.053632244 -0.0633206 -0.16327287 0.02682249 -0.07294871 -0.088552855 -0.090882905 0.19783725 0.06769303 0.13549201 -0.16826586 0.05419863 0.0055577117 0.13103883 -0.013576751 -0.017819088 0.10685963 0.019438647 -0.0577873 -0.15188104 0.099320926 -0.008390076 0.18220207 0.1665216 0.12080144 -0.048273023 -0.1234648 0.099956736 -0.04848768 0.012902265 -0.119964935 -0.016225897 0.066325985
23 0.13930759 0.0797817 0.18851602 -0.019027488 0.08274722 -0.15229975 0.16813314 0.11009037 -0.064133175 0.012811423 0.22938728 -0.047184378 -0.039712414 -0.112998284 0.18929411 -0.0065731793 0.28122574 -0.09839472 -0.04240212 0.11131704 0.11954885 0.12596057 0.10390322 -0.12145853 -0.23362057 0.18552934 -0.1566156 0.046049304 0.05452167 -0.14861742 -0.26890787 0.109167635 -0.08050491 0.0021803528 -0.17670634 -0.051339004 0.2108002 0.10304134 0.0920329 -0.14662229 0.1804197 0.17549515 -0.032812964 -0.06975614 0.061756864 0.039372016 -0.002628964 -0.13115853 -0.08770713 0.17939004 0.15149218 0.06319254 0.27413204 0.06218091 0.13695042 -0.08358136 0.2131179 0.1554086 -0.037695557 -0.081249386 0.07613806 -0.17723233 0.028624713 0.03746943 0.11245114 -0.21909948 0.08325531 0.0693093 -0.11917604 -0.16249706 0.118532814 0.07050432 -0.033245243 -0.050811596 -0.02081705 0.0011346955 0.036130168 -0.1797624 -0.20210494 0.16164476 0.093910396 -0.1486705 -0.10839371 0.18412705 0.06763156 0.023294521 0.24838358 -0.041533332 0.16358311 0.17042965 -0.2570926 -0.16642074 -0.074768074 -0.063116506 -0.06049356 0.061821766 -0.025547758 -0.16243322 0.02999477 -0.09294444 -0.08492988 -0.10773162 0.24371286 0.06043387 0.14417009 -0.18229827 0.063380465 0.024166055 0.13957132 -0.018640677 -0.03345453 0.12758121 0.012754943 -0.100066185 -0.15020694 0.10913118 0.0139724 0.19571272 0.18360044 0.123655535 -0.05588207 -0.1025803 0.10279067 -0.056482263 0.0058664205 -0.14734508 0.017440978 0.054845914
10 0.11782693 -0.013346493 0.14386974 -0.021081515 0.066855304 -0.11763839 0.08613524 0.107189134 -0.0067462604 0.040156163 0.2189619 -0.07697956 0.009315384 -0.050609797 0.10625591 -0.03944494 0.19872776 -0.045412943 -0.08398673 0.015622128 0.12665741 0.10133927 0.081066206 -0.05565615 -0.18596086 0.11602157 -0.13295767 -0.009768637 0.06123496 -0.07684705 -0.25985315 0.108661935 -0.041893397 0.04802943 -0.14305468 -0.013577886 0.20748456 0.04355163 0.11843553 -0.13814518 0.08237674 0.10510164 -0.05046717 -0.08644235 0.017542485 -0.060929902 -0.04439843 -0.118529774 -0.012886095 0.13213284 0.10537421 -0.012137591 0.18405311 0.08672394 0.11231018 -0.055338204 0.16237117 0.08031295 -0.112865105 0.019254696 0.04319913 -0.12204089 0.022181079 0.007522585 0.11169904 -0.14935686 0.06171169 0.07630155 -0.060573827 -0.1357823 0.13091315 0.10238116 -0.08955552 -0.05754302 -0.004692139 -0.065554254 0.055065736 -0.14294285 -0.11904139 0.15901098 0.02562997 -0.13948624 -0.028585227 0.19753355 0.020705795 0.035547975 0.21567407 -0.0578156 0.12500894 0.16460691 -0.13683605 -0.13234664 -0.073746525 -0.046161868 0.08119805 0.03737924 -0.1287029 -0.20344982 0.0046845283 -0.052403536 -0.07458695 -0.06514158 0.12528935 0.04647368 0.10487755 -0.15286131 0.029427134 0.016742364 0.13346663 -0.0006139797 -0.01590047 0.065972015 0.052167326 0.029508097 -0.15929927 0.11069827 -0.03678453 0.2112913 0.16270924 0.11889123 -0.024859624 -0.13315406 0.098253705 -0.020879954 0.04501032 -0.07290302 -0.04887099 0.104643196
21 0.12517166 0.052396 0.15374748 -0.017270314 0.07123655 -0.1311136 0.13840377 0.114985354 -0.03992656 0.014864766 0.2016631 -0.04321237 -0.022444395 -0.080823444 0.16042538 -0.0038592452 0.25052324 -0.09041463 -0.054060817 0.08187085 0.11181577 0.10422534 0.086045496 -0.10357276 -0.20889626 0.15637705 -0.13932258 0.0148547795 0.052653745 -0.1226014 -0.24312992 0.09276789 -0.06725731 0.017776385 -0.16264832 -0.030567732 0.19374862 0.074965864 0.09620695 -0.14135012 0.14755668 0.15185392 -0.034642804 -0.068547726 0.047863614 0.0054157907 -0.019616751 -0.11304011 -0.06459497 0.14559299 0.12549414 0.034409538 0.24062176 0.06619645 0.13055149 -0.076522656 0.18795425 0.13435534 -0.049968828 -0.055298496 0.05624742 -0.15077919 0.0102764685 0.038171507 0.10862941 -0.18575983 0.067081556 0.06952203 -0.10661692 -0.15570894 0.11551373 0.07152371 -0.04417652 -0.055747185 -0.013283137 -0.012345789 0.039634995 -0.16304511 -0.17018022 0.14491361 0.06485068 -0.13901134 -0.075908296 0.17619517 0.047972996 0.016595496 0.21796234 -0.038503964 0.14737773 0.15631568 -0.21330212 -0.15045919 -0.07404132 -0.056082357 -0.026917744 0.049292784 -0.041299567 -0.14815728 0.02904795 -0.07369143 -0.067985624 -0.09025535 0.19321543 0.046407174 0.12788948 -0.15698747 0.04371933 0.029484577 0.13843422 -0.009688124 -0.028430158 0.11618496 0.02020312 -0.06600174 -0.1397761 0.111803666 -0.0052015614 0.1826105 0.17551216 0.109476626 -0.04194295 -0.11054999 0.09799561 -0.0452693 0.009768798 -0.11647059 0.013972331 0.05594564
15 0.11740913 0.016224688 0.1382623 -0.0077841156 0.071601994 -0.1308091 0.116375186 0.12020317 -0.031045485 0.037093148 0.22293772 -0.07328646 -0.00060871366 -0.065615684 0.13945286 -0.028688148 0.22333814 -0.07269792 -0.07309039 0.054353524 0.12460847 0.10345663 0.08428661 -0.07438556 -0.20914397 0.13855325 -0.13990027 0.0173502 0.046641733 -0.10020744 -0.26707682 0.09599872 -0.047886763 0.034852568 -0.15093052 -0.02229447 0.20167068 0.05921148 0.11091127 -0.14165345 0.116317794 0.1385594 -0.05263344 -0.073289216 0.033712935 -0.026600823 -0.02735068 -0.106627375 -0.030606404 0.14631979 0.1207177 0.015817247 0.21861407 0.07135737 0.1286049 -0.06414846 0.1831628 0.105064675 -0.08479899 -0.0038179534 0.045991212 -0.14174812 0.028352084 0.021928273 0.115208864 -0.16196273 0.066247866 0.07046411 -0.080801055 -0.15347591 0.12557252 0.08254339 -0.0663411 -0.062561445 -0.0071198987 -0.049405776 0.065322176 -0.16331875 -0.14405204 0.15853553 0.04543128 -0.13791777 -0.059751704 0.19082609 0.028768377 0.02655154 0.2299477 -0.045021392 0.14068824 0.15741374 -0.16351013 -0.14484864 -0.06339366 -0.04677694 0.02780291 0.04565415 -0.104240574 -0.18987602 0.017478468 -0.057898127 -0.08641078 -0.08295166 0.16628651 0.050121523 0.11562179 -0.1513489 0.030429231 0.021144662 0.13358709 -0.003487148 -0.02406676 0.0856356 0.036309987 -0.020437034 -0.15352817 0.11760602 -0.011852015 0.19775873 0.16764003 0.11664962 -0.0433532 -0.1226081 0.09783416 -0.03060415 0.028103027 -0.100286074 -0.018194275 0.07868187
19 0.1368166 0.047340825 0.16810441 -0.021898763 0.06723182 -0.13342789 0.13592952 0.112235814 -0.045793727 0.028619844 0.21329774 -0.054106835 -0.027715823 -0.09184487 0.16408445 -0.014100472 0.25908247 -0.084195495 -0.055415537 0.08578495 0.12295026 0.112547226 0.09618008 -0.09012504 -0.21868898 0.15170017 -0.16076133 0.013855367 0.060092255 -0.13171291 -0.25254327 0.112575345 -0.06535074 0.010787674 -0.16774726 -0.03953411 0.2253199 0.07839715 0.10592091 -0.14239487 0.15690489 0.15169697 -0.03446275 -0.07691822 0.048447542 0.0009631127 -0.015802193 -0.12193323 -0.06014188 0.16349855 0.13370705 0.03581599 0.251453 0.06540824 0.12950593 -0.05605648 0.19301978 0.14292954 -0.06047275 -0.037350513 0.058376614 -0.1581727 0.019529046 0.04529934 0.12057661 -0.19439715 0.079814814 0.05869617 -0.099243596 -0.16390507 0.1275256 0.08485344 -0.046820875 -0.04586916 -0.016492369 -0.026894124 0.041938603 -0.17022063 -0.15831783 0.16836517 0.074000604 -0.14767797 -0.08882723 0.1867993 0.045144163 0.042232845 0.23440872 -0.035315108 0.1551424 0.17139472 -0.21824689 -0.1527353 -0.06355246 -0.061147872 -0.0155955395 0.05599728 -0.059133112 -0.1660085 0.020687077 -0.06778911 -0.08390769 -0.082001224 0.20277561 0.05563411 0.12678234 -0.16739154 0.053728707 0.027058419 0.13705164 -0.013875721 -0.029308822 0.10503028 0.019837547 -0.05378411 -0.15841603 0.102405794 0.0023914082 0.20236583 0.17846656 0.12793516 -0.049773443 -0.12973835 0.09355003 -0.05375716 0.012334392 -0.113929726 -0.004401476 0.063444145
31 0.11228583 -0.030037273 0.11762937 -0.011193295 0.07019791 -0.10181113 0.07897032 0.11847811 -0.0031283693 0.03302132 0.2238178 -0.07673199 0.004145369 -0.04958448 0.10062022 -0.040324148 0.17249604 -0.04744063 -0.09614376 0.00050641503 0.120660685 0.09678474 0.08330384 -0.044290263 -0.1798904 0.10720862 -0.122567646 -0.0022703297 0.04761237 -0.053296812 -0.264993 0.08803942 -0.020929702 0.04080701 -0.13465162 -0.020867577 0.19809914 0.035314173 0.13510484 -0.14037478 0.07578444 0.091247745 -0.06968039 -0.08305523 0.02098734 -0.07048237 -0.03668848 -0.10359795 -0.0027581789 0.121585734 0.09140647 -0.022080544 0.18200766 0.09979302 0.12835957 -0.055493243 0.16848153 0.067233816 -0.11882017 0.036978453 0.031663537 -0.12181793 0.031038977 0.012692756 0.097082935 -0.13169286 0.060664877 0.09184663 -0.07227774 -0.13101508 0.13866332 0.09994264 -0.07913505 -0.05720737 -0.013309941 -0.072991386 0.060240228 -0.14105326 -0.10664497 0.15184985 0.026814794 -0.13630052 -0.02775844 0.20425633 0.014211052 0.04223307 0.21706508 -0.047509883 0.124740444 0.16591829 -0.11838821 -0.11678853 -0.063209824 -0.044474326 0.09140969 0.029336251 -0.14054714 -0.19302635 0.014489138 -0.05478642 -0.07716465 -0.067235745 0.10876237 0.046560127 0.091019146 -0.14443383 0.02803508 0.02111103 0.12075918 -0.015214396 -0.00827487 0.06418555 0.037093908 0.05032563 -0.14881067 0.11228121 -0.035488352 0.20152915 0.15556046 0.12401078 -0.032747466 -0.13328797 0.107159466 -0.011768612 0.044676755 -0.07834326 -0.040155042 0.09507415
16 0.12139523 0.0340288 0.15086855 -0.02467209 0.06601713 -0.13000347 0.11587542 0.11556262 -0.036733687 0.03460803 0.21504931 -0.061261367 -0.019129287 -0.075922586 0.13866864 -0.017440904 0.2345438 -0.06627133 -0.06456472 0.06242752 0.11162772 0.105005056 0.0838139 -0.07177977 -0.20376751 0.13272455 -0.14095496 0.010134965 0.052556 -0.10900551 -0.25517526 0.10186036 -0.059061527 0.019634444 -0.15403019 -0.021234322 0.20957918 0.069321275 0.106845066 -0.14040597 0.12777683 0.13265847 -0.036646333 -0.076322794 0.03147381 -0.013968267 -0.021079723 -0.120465174 -0.047312893 0.14238255 0.124028794 0.021829076 0.22803415 0.06631947 0.13340136 -0.067439005 0.18402256 0.11535484 -0.06975641 -0.0301358 0.056854308 -0.13824414 0.017362421 0.02130184 0.115808345 -0.17222874 0.062872365 0.06996004 -0.09429795 -0.15600586 0.1286858 0.083744936 -0.059856657 -0.05199267 -0.015518815 -0.039819434 0.041078422 -0.15691848 -0.15258506 0.16136304 0.057990883 -0.1406536 -0.06510059 0.17763509 0.04558343 0.04014667 0.22407892 -0.04765101 0.1384599 0.16816884 -0.18663451 -0.136423 -0.06073766 -0.04847661 0.012691355 0.05365603 -0.083354406 -0.17617057 0.02713423 -0.072441496 -0.07848497 -0.08083695 0.16446361 0.04578325 0.12053292 -0.15908039 0.03507413 0.028062034 0.1258721 -0.017815575 -0.02003452 0.095115826 0.034638196 -0.02655051 -0.14027354 0.098501645 -0.008614328 0.19896114 0.16500425 0.1198867 -0.036154494 -0.123344675 0.0892726 -0.04446153 0.024555426 -0.10500021 -0.004250961 0.07475542
17 0.1547226 -0.19057126 0.07138608 -0.021331092 0.06204858 -0.03560578 -0.03443409 0.13059717 0.07231945 0.11365001 0.18426459 -0.1976695 0.09793482 0.033339806 0.0026646014 -0.11345343 0.049160056 0.06765771 -0.1870672 -0.094353504 0.19130844 0.09507893 0.029665425 0.11954208 -0.157252 -0.009707994 -0.12582015 -0.09477493 0.107645534 0.08277356 -0.33304238 0.14555071 0.084658235 0.10387757 -0.11092096 0.014232506 0.27406916 -0.0057906364 0.19373567 -0.11836499 -0.098217934 -0.039763775 -0.13094623 -0.076580234 -0.02069058 -0.23190951 -0.10654292 -0.11864435 0.08713938 0.07684648 -0.020304274 -0.09867442 0.09742224 0.15181221 0.09037798 0.0494063 0.12942845 -0.028089708 -0.25888398 0.18491875 -0.035956293 -0.057396855 0.072309226 -0.019040382 0.12188791 -0.051682588 0.032006588 0.061120678 0.009843443 -0.124174334 0.20729169 0.21535106 -0.2128288 -0.00043037033 0.007447052 -0.21602221 0.061583832 -0.10193435 0.055966973 0.20120229 -0.08110383 -0.16637218 0.08794935 0.25545192 -0.06895089 0.1206126 0.21431243 -0.07765628 0.13124351 0.21251322 0.052507136 -0.062654644 -0.0466797 0.008937359 0.33346733 0.046179127 -0.37662998 -0.29346162 -0.034834176 -0.00888993 -0.102492124 0.0025592325 -0.09546586 0.003949223 -0.010308068 -0.09214099 -0.0100714015 -0.024387635 0.075627826 0.03374523 0.030729711 -0.041708604 0.095441565 0.29759178 -0.2147131 0.077399105 -0.07945526 0.25740954 0.11690373 0.2077267 0.033341613 -0.2676869 0.083158575 0.06299197 0.10423664 0.011132481 -0.18830213 0.2455719
22 0.09898334 -0.125887 0.079324655 -0.0023148344 0.0715063 -0.048262686 0.0149701685 0.12278334 0.04337584 0.0665284 0.20297088 -0.13637516 0.061989438 0.008637599 0.016158327 -0.096140124 0.08787732 0.02781569 -0.16676794 -0.074165486 0.15026708 0.093580805 0.06963915 0.03652343 -0.15576151 0.04377471 -0.10576711 -0.05612865 0.056291733 0.024552526 -0.29253426 0.10554905 0.02666191 0.08717166 -0.11728227 0.0011589129 0.21700116 -0.0026679295 0.16542841 -0.13317609 -0.028212382 0.029281465 -0.103671886 -0.09271947 -0.021621358 -0.1589653 -0.0804089 -0.09568565 0.072655655 0.06940664 0.029604118 -0.06768484 0.11989104 0.14014645 0.095719114 -0.012681045 0.13158484 -0.008387295 -0.18818818 0.12388395 0.010562812 -0.091058195 0.046435088 -0.015678573 0.096651495 -0.06592621 0.026266698 0.09828035 -0.023689097 -0.11742711 0.16128345 0.13669424 -0.14270106 -0.037019562 0.0025533694 -0.14527608 0.07577873 -0.1149332 -0.020002605 0.16878194 -0.032324657 -0.13691255 0.05068826 0.23416063 -0.0412058 0.066597745 0.21858513 -0.06192545 0.11229734 0.17896931 0.008143506 -0.076587625 -0.0593907 -0.020808285 0.23810759 0.014294537 -0.276706 -0.2468594 -0.022218358 -0.02975539 -0.08974181 -0.036756355 -0.003489247 0.03229679 0.042879038 -0.10753592 -0.0075532426 0.0018032324 0.11201796 0.007328432 0.02548784 -0.0010827968 0.07918359 0.19320759 -0.1618614 0.10147293 -0.06348871 0.22441009 0.13458617 0.1361716 -0.0023840573 -0.17740525 0.11775274 0.028749168 0.074847735 -0.023231994 -0.115361966 0.15895647
11 0.09653952 -0.15545626 0.07611217 0.006954004 0.070141695 -0.044667922 6.875512e-05 0.1257449 0.047647905 0.0766105 0.2296899 -0.15966183 0.07650919 0.01906684 -0.0063750707 -0.10887447 0.060685303 0.037164465 -0.18979128 -0.10298952 0.17250393 0.08333589 0.058262747 0.05877403 -0.16771701 0.023186995 -0.11213823 -0.060130145 0.052434955 0.046305284 -0.31575027 0.11048038 0.04412963 0.08959022 -0.10947783 0.002604796 0.22741763 -0.0072077364 0.19498186 -0.15025644 -0.05099272 0.01560237 -0.13104486 -0.09960751 -0.035615567 -0.18446915 -0.08693444 -0.10028904 0.0917115 0.06609648 0.024955489 -0.0962628 0.09470181 0.15729819 0.0964592 -0.019046422 0.12644461 -0.03928827 -0.22949412 0.16568501 0.0042295773 -0.08234139 0.052631073 -0.02737227 0.08657456 -0.05328319 0.014342873 0.11833364 -0.004504898 -0.11415494 0.16945364 0.15559104 -0.16640745 -0.04505781 0.003464481 -0.16461068 0.081484735 -0.118208684 0.0012228728 0.17920412 -0.05441731 -0.13999173 0.08527455 0.24758597 -0.051904414 0.0740269 0.2140012 -0.07269126 0.104996055 0.17105286 0.0358716 -0.06768918 -0.06304594 -0.007060852 0.28060883 -0.0033566 -0.31398702 -0.26339626 -0.027130716 -0.021514522 -0.10493274 -0.023594733 -0.037179153 0.025088953 0.02815692 -0.103920944 -0.005564085 0.0017411184 0.11934991 -0.0010842676 0.03032978 -0.019698758 0.09388844 0.22839165 -0.16060035 0.10319958 -0.071788065 0.25277922 0.13226956 0.14790736 0.011485663 -0.1867534 0.12779854 0.041354276 0.08648888 -0.0061160596 -0.1293494 0.17506857
12 0.11669731 -0.10785282 0.09849721 -0.008230183 0.06394288 -0.069161884 0.03026469 0.11790933 0.041111637 0.06313054 0.21827139 -0.13502967 0.06568201 -0.013071894 0.03636184 -0.082896896 0.102384456 0.018230332 -0.16076216 -0.05584131 0.15610522 0.09653003 0.06977818 0.027679348 -0.17267352 0.04593994 -0.11406523 -0.041250568 0.061897222 0.01927465 -0.29875025 0.10849766 0.01887713 0.0777333 -0.13312188 -0.00079354335 0.23495801 0.021768581 0.17531627 -0.13773115 -0.011080176 0.03261814 -0.09236332 -0.09347259 -0.01228367 -0.14629103 -0.07116113 -0.11271902 0.059983693 0.09237617 0.038766857 -0.070565 0.12679985 0.13631958 0.093606316 -0.0110881375 0.14162101 -0.0027848643 -0.19428878 0.11821709 0.008512062 -0.088298924 0.03847936 -0.020971969 0.0988 -0.08961614 0.029911477 0.08213083 -0.031675287 -0.12581903 0.17219813 0.14080615 -0.15150723 -0.036230084 -0.00064459466 -0.14502096 0.077638425 -0.127504 -0.02693376 0.18962441 -0.022629635 -0.13831003 0.048999626 0.23638044 -0.03526994 0.07644468 0.21536356 -0.06919503 0.12850636 0.17308077 -0.028640054 -0.09466551 -0.06032741 -0.014326991 0.21768762 0.02544552 -0.26360172 -0.24169128 -0.022435822 -0.033593707 -0.10307378 -0.03668393 0.020579975 0.03849411 0.044690996 -0.120281585 0.015521683 -0.005554835 0.10950443 0.0058928626 0.0140684955 0.01658511 0.08126842 0.18191925 -0.1627386 0.093543395 -0.060726877 0.23024721 0.13897383 0.14240244 0.00047638605 -0.18363722 0.10633363 0.028505951 0.07580422 -0.035244286 -0.11439895 0.156101
29 0.12388865 0.044339415 0.16339602 -0.028101288 0.06930418 -0.1340717 0.11867007 0.11250472 -0.039407223 0.03472419 0.21094978 -0.06387287 -0.016108 -0.08971699 0.14995088 -0.023383593 0.243076 -0.069784224 -0.05943389 0.07227822 0.1078506 0.10704089 0.08407825 -0.08303349 -0.19989601 0.1426874 -0.14228436 0.016745029 0.05289884 -0.110036954 -0.24992578 0.10566932 -0.06485255 0.014019898 -0.15518901 -0.037199866 0.21019268 0.067694575 0.096488364 -0.1369705 0.14634097 0.13413028 -0.041096278 -0.064755484 0.03628394 -0.0054124366 -0.021027766 -0.12793007 -0.05640244 0.14456108 0.12963246 0.04202935 0.22794 0.067712486 0.12292545 -0.059730772 0.18733835 0.128786 -0.060084004 -0.023447204 0.047088873 -0.14281487 0.031543877 0.033924773 0.105977006 -0.17879118 0.07313429 0.052488375 -0.08935296 -0.14091969 0.115873046 0.07872142 -0.059331704 -0.041759156 -0.01673879 -0.038149633 0.03821068 -0.15839742 -0.15341005 0.153478 0.059828002 -0.13357365 -0.06415472 0.17515391 0.04503265 0.03904382 0.21969876 -0.031558823 0.13510564 0.16129504 -0.20623219 -0.14371933 -0.070969865 -0.048161324 -0.010076931 0.04926553 -0.065198 -0.1618547 0.0140932165 -0.0643121 -0.072615266 -0.07491413 0.17809059 0.06294489 0.13120285 -0.15733579 0.047088392 0.004908959 0.12307941 -0.00968343 -0.019119013 0.100200556 0.020135656 -0.03926793 -0.15208125 0.1056945 -0.005482066 0.17558485 0.16141808 0.12446738 -0.043301854 -0.12421959 0.095433235 -0.03871458 0.025909964 -0.115931615 -0.011301169 0.07357276
27 0.11812782 0.025613325 0.14583302 -0.02263612 0.063145205 -0.12187155 0.11984255 0.10669397 -0.02725725 0.026812596 0.22124356 -0.061078917 -0.009726249 -0.0838323 0.14532143 -0.028308855 0.24541816 -0.062822804 -0.06562341 0.052232828 0.116071574 0.108183324 0.079095766 -0.08437798 -0.20416868 0.14389096 -0.14898652 0.005545466 0.06291217 -0.112660736 -0.25175786 0.10592563 -0.06174609 0.016925141 -0.15286313 -0.019315556 0.20271121 0.060285144 0.10022901 -0.134635 0.12634504 0.13970332 -0.04350534 -0.08250646 0.03543354 -0.015429116 -0.027222699 -0.12578416 -0.045232974 0.13979794 0.12655936 0.018859815 0.2250215 0.07733265 0.12927411 -0.062449858 0.17178969 0.11532816 -0.07700035 -0.02669503 0.060693834 -0.14617077 0.012507419 0.030736094 0.11546173 -0.1682823 0.06987111 0.06773764 -0.09517424 -0.15930972 0.116846114 0.06972254 -0.06672819 -0.047716256 -0.0014205839 -0.037560724 0.046563596 -0.1532709 -0.14804254 0.15200043 0.057799723 -0.14023301 -0.065425456 0.18641558 0.048619624 0.039586462 0.22064419 -0.04842217 0.14320019 0.16483001 -0.1950282 -0.131888 -0.07256582 -0.044872783 0.027412888 0.05136423 -0.08176789 -0.18011384 0.013813251 -0.06995471 -0.08202272 -0.09363273 0.18250968 0.047541734 0.13170457 -0.16553679 0.0356603 0.013641536 0.14168496 -0.019543888 -0.012028826 0.09717067 0.04326892 -0.020195117 -0.13960333 0.114557646 -0.01973408 0.18707798 0.16185267 0.121204875 -0.032340836 -0.118129805 0.100059666 -0.03584181 0.021644874 -0.11306455 -0.0028180084 0.065078
18 0.10181203 -0.061324887 0.11955652 -0.010507195 0.06948624 -0.094383426 0.065556586 0.10890068 0.010148207 0.048111774 0.2276806 -0.10178053 0.022701396 -0.039685156 0.07285583 -0.06735362 0.14721783 -0.0196805 -0.11362765 -0.030981522 0.12629838 0.09276856 0.066454545 -0.0037704485 -0.16971396 0.09312591 -0.1118816 -0.012442872 0.04947362 -0.022992311 -0.27577376 0.10067514 -0.0059498074 0.057887644 -0.12467457 -0.0065066125 0.2071481 0.021779347 0.14876054 -0.13686755 0.040213704 0.07924141 -0.08487554 -0.08206604 -0.0044545652 -0.09674591 -0.0589477 -0.09493752 0.021650398 0.09562565 0.07860764 -0.047822084 0.14942318 0.10528045 0.10711581 -0.04877346 0.14111277 0.035540596 -0.145863 0.069209814 0.02433976 -0.10500351 0.03340032 -0.011913628 0.08911854 -0.11272131 0.036576807 0.0864935 -0.047808915 -0.12105583 0.13944797 0.10149149 -0.10836333 -0.055678844 -0.014036371 -0.09356602 0.06567257 -0.13153648 -0.07841437 0.14858823 0.00032995752 -0.1358578 0.0041815224 0.21155258 -0.0051742536 0.04125429 0.21463747 -0.061247382 0.115219 0.16546005 -0.07216066 -0.093830794 -0.06371065 -0.029043412 0.14721273 0.009726911 -0.193884 -0.21583256 0.00043421058 -0.04725684 -0.085966386 -0.06113458 0.07142672 0.043513775 0.08378737 -0.13802288 0.014158871 0.010377172 0.12587541 -0.008287307 0.006844853 0.029094463 0.058188256 0.086750664 -0.1520315 0.10609543 -0.048297122 0.21416341 0.1334309 0.11950653 -0.016146785 -0.14523365 0.108827166 0.0057622683 0.04453047 -0.05884309 -0.06578984 0.116785966
